{
    "Type": "neuralNet.RNN",
    "LayerNum": 6,
    "Layer 0": {
        "Type": "neuralNet.Dense",
        "inputSize": 32,
        "outputSize": 32,
        "weights": [
            [
                1.682157701487562,
                0.44469000843884793,
                -0.3776767217954404,
                -1.4893783991866896,
                0.8958684382119536,
                -0.023291241725632905,
                0.07044920693702902,
                -1.6411476290274183,
                -0.39377802928344574,
                1.067810698099904,
                1.3220433476345415,
                0.5747624531294118,
                0.06473556193769496,
                0.9827840390124768,
                -0.3091909946240555,
                0.2018272194243135,
                -0.6008914019761672,
                0.7739506183978646,
                -0.48432121572793346,
                0.05330751022354677,
                0.14789389394033456,
                -1.7687574553838425,
                0.8789602208312582,
                -0.7309590599045684,
                -0.4339927557329885,
                1.144081870328757,
                0.39769347487613577,
                0.4889238389572819,
                -0.161725276116867,
                0.19073144900941996,
                0.5337804069492821,
                1.3526251248138934
            ],
            [
                -0.011516339941623686,
                0.21838565004650506,
                -0.767470637808813,
                -1.0210341455651275,
                -1.2930770611496745,
                -0.822415576599852,
                0.9335740496026117,
                -0.05020405447945719,
                -0.17766407592183467,
                -0.671070147854715,
                1.1363376117530537,
                0.6088098903395924,
                -0.31568737026826255,
                -1.1590479649996421,
                -0.36650766708356175,
                -0.1824774539405436,
                -1.2339164757298389,
                0.09593952239290857,
                0.7862727460145207,
                -0.0038513913959552525,
                0.8870604139320978,
                1.6478753150448593,
                0.2570458989756564,
                -0.14699014014008244,
                0.7022602058774259,
                0.5466434733802544,
                0.1465710805126837,
                0.40815166363374983,
                0.09739544377049378,
                -0.3839455925114039,
                -1.2334844504356655,
                -1.584843783436096
            ],
            [
                0.5770748455155238,
                -1.233822136106596,
                0.4982964417262031,
                -0.8888499995838323,
                1.3790592438496125,
                -1.8455820759467887,
                2.3065595446456806,
                0.22613596272438008,
                -1.8576474365859896,
                -0.8225267947721819,
                0.4822426353723251,
                1.119056129910589,
                1.068532544007802,
                -0.21018139510157632,
                -0.22393620949184598,
                0.5705406239394883,
                -0.8979467459957696,
                -0.870928219123693,
                0.6226752591342428,
                -0.1415181803246323,
                -0.8793013454216053,
                -1.1056831321532896,
                -1.0765814519780277,
                0.2599027468814138,
                2.057846633845508,
                0.557941787596508,
                -0.2574320039959267,
                0.41118747628726715,
                -0.2431010479889725,
                -0.6584484953602072,
                1.8044223610634327,
                -0.9852280319203603
            ],
            [
                0.4275498770689616,
                1.3468599460344957,
                -0.7731647206141037,
                -0.2236599309139363,
                -1.160964410271705,
                -0.6814519902773424,
                -0.1550340846333489,
                -1.969607971739876,
                1.6906031703114959,
                -1.0721909488489314,
                0.8670702071964509,
                -2.70412595756946,
                -0.30891617841038105,
                -0.013215945656868244,
                0.38459674573668173,
                -0.048627511385764786,
                -0.33992457165168766,
                -0.528009766363822,
                1.1059322087514387,
                -0.12908663431726802,
                -1.2629519204852029,
                0.1305534902190133,
                0.767110948604038,
                0.5870524750207248,
                0.3947988848876529,
                -1.886981916665863,
                -0.7097512957147507,
                0.26084114007791354,
                0.7863196910771378,
                -0.3969746826242684,
                1.543624298602789,
                -1.4224590442538017
            ],
            [
                -2.0071758142166725,
                0.13645290727031636,
                0.19934486530122694,
                0.9251125210052645,
                -0.3649367556830888,
                1.2441190800823712,
                -0.5148784089833164,
                -0.14907219861820653,
                1.5780330940628557,
                1.7854404334553573,
                0.7330212724471185,
                -1.2023696231889431,
                -0.0672073964548523,
                -0.1857487135437642,
                0.8846481412475516,
                -0.9468301199250126,
                0.08276907797713495,
                -1.4831041340218114,
                -0.7687094373765447,
                1.4314188184267664,
                0.31887922574941857,
                0.18215284655239042,
                0.10909513223183466,
                -2.0622441097453232,
                0.1920014347993533,
                0.9477620743052155,
                0.8262290308080597,
                0.0033719747691128023,
                0.7984833432030779,
                0.527588972162913,
                -0.7777626815964609,
                0.12761012957723963
            ],
            [
                1.0622221976807271,
                0.42410119600138957,
                1.715408288474095,
                -1.0229059601121289,
                -0.7596455465159974,
                0.5512107315499448,
                0.3805354880452185,
                -0.9843435549179774,
                0.3655285743266263,
                -0.7869827860088564,
                -1.159977492343307,
                0.41760659778933434,
                0.13505962904168847,
                -1.2543590915608303,
                0.6687722608363647,
                -1.1892242710926169,
                0.2902053985708556,
                -2.5533870506155463,
                -0.09293037290282011,
                -0.23099287826653322,
                -0.9524420094418768,
                0.09406714562583443,
                -0.27276230248893696,
                -1.6242559375416383,
                -1.8315956874502126,
                -0.3428712946009795,
                -0.8203496907043425,
                -1.2029064622941723,
                -1.162501663371501,
                -2.340771039594324,
                -0.19394660136045772,
                -0.19345675565440434
            ],
            [
                -0.47360505797990277,
                0.746455259199751,
                0.16355074831778924,
                -0.36015987945023564,
                -0.24297967351682204,
                0.22374276247440003,
                -0.16845557720809504,
                1.1788204068533823,
                -0.1737107310954295,
                1.4744083675145991,
                0.2690968156963896,
                0.41037529111747745,
                0.42252362089689616,
                0.7355679959523956,
                1.6083624531327316,
                -0.45723748841645817,
                0.5166229216885878,
                -1.803478125555425,
                0.18033162761756535,
                0.9134508134763932,
                -1.377059979303111,
                0.43374152441525604,
                2.2657630356715073,
                0.40035347773832747,
                -0.8262114265955902,
                1.1980183335246843,
                0.870507731264417,
                0.3152178130048506,
                0.7365565547642097,
                -0.33439560707512933,
                0.29016931991235223,
                -0.5302259273635146
            ],
            [
                0.40242332103912115,
                -0.0747543630317645,
                -0.260118435433242,
                0.6773122294326895,
                0.7610478186533198,
                -2.1920439811583528,
                0.9042561900089033,
                0.6994361247267934,
                0.6167340560020457,
                -1.442312341869583,
                -1.229419894388433,
                -0.9491609617165288,
                -0.4646672074776466,
                0.20835811976385124,
                0.8709928431385301,
                -0.7703355106524818,
                1.1079275775522233,
                1.3485811779485104,
                0.7692975837687905,
                0.5440337918504016,
                -0.43499226794161555,
                -1.817239090402233,
                -1.480130751254834,
                -0.34671686533837187,
                0.6991730229400143,
                -1.2795891158369936,
                -1.3052946430170747,
                0.3765702981805666,
                0.9763989183714683,
                -0.7588308516574285,
                0.007871903116250512,
                1.1880866133745618
            ],
            [
                2.72570648381184,
                1.836238221998172,
                0.6124678904865417,
                0.8851077018735289,
                -0.2177107525507825,
                0.0786244090008568,
                0.8875448299517256,
                -0.0698241586673095,
                -0.5041804606294922,
                0.7267913935713496,
                0.27482486685344854,
                0.8027918628362992,
                -1.4270646634075794,
                0.6694240708788907,
                0.41428257904887306,
                0.9331717474644391,
                1.2742055859307355,
                1.1118963878496053,
                -1.8149066942319716,
                -0.10070155680397164,
                -0.6618384690815688,
                0.726371375832433,
                -0.9428405119384748,
                1.596450846513453,
                -1.0900891553114485,
                -1.449735634812577,
                -0.9572533714414065,
                0.6730318219471813,
                0.0993941824295363,
                0.7991822568337346,
                -3.4367117555939948,
                -0.13138550032808385
            ],
            [
                -1.8491066100303262,
                -0.47198316801635454,
                0.7565646751737362,
                -1.6416474049636471,
                -1.1038445393926186,
                -1.1368262310831194,
                0.9235585834773805,
                -0.4895663206338636,
                -0.9948290322928518,
                0.4166464007733781,
                -1.0260877240342416,
                1.2539726350341103,
                1.1148321447323344,
                -0.07887487869756843,
                -0.5300907508622438,
                -0.6491285784075023,
                -0.2518147683944396,
                0.9106125429227663,
                0.7018053480569989,
                0.06562242653196096,
                1.5592690679731471,
                -0.7852933133369957,
                2.7404858088449595,
                1.3042780345226928,
                0.6956993965076338,
                -0.4230716187618377,
                0.10628423726454879,
                -2.053441615839593,
                0.14325654705912355,
                -1.2730818220918394,
                -0.030637780698532815,
                -0.6897613197031688
            ],
            [
                0.3513176355528035,
                -0.19256030678549554,
                0.7189693722927291,
                -0.8239488152469949,
                0.367374321710885,
                0.2486843337803593,
                0.5328847001675999,
                0.2895726624677882,
                0.8223688612817355,
                -1.5404281506478907,
                1.4265719851024066,
                -0.26176992814650546,
                0.843782395888564,
                0.9714250146117099,
                -0.35027569177852047,
                -2.6040943289822405,
                0.3296267121558231,
                -1.8330273432685726,
                -0.4354335886472988,
                0.29328294062038823,
                -0.5277046611343731,
                -1.2520950639956014,
                1.9785107328999876,
                0.42496805734541376,
                -0.8631453734620902,
                -0.3361420326319419,
                -0.2992982005865972,
                1.4261726322080337,
                -0.30295879879182724,
                -0.15507277401860223,
                -0.24617859377209844,
                -1.8379635075772014
            ],
            [
                -0.2744963893304575,
                0.3024363017845612,
                -1.1775195965371406,
                -0.060672780588210226,
                -0.2776495755723862,
                -0.6291609897199039,
                -0.6791488739763383,
                0.31127477947642607,
                -0.9088207565247919,
                2.3807117299657086,
                0.18607132545059993,
                -1.2559753430627638,
                0.9609578472172573,
                -0.8474217714854503,
                1.2311217067205897,
                1.7827071019595089,
                -0.5018674844905929,
                0.2575976562455203,
                -1.29596119041782,
                -1.5494197347495224,
                -1.0398923095938826,
                1.3431392116397498,
                0.8656403853838488,
                0.5333854135091967,
                0.000732537728775047,
                -1.8472924008678655,
                -0.05988542759938364,
                -0.3365072134525033,
                -1.34608266276159,
                -0.4547387709392742,
                0.8035337109744274,
                -0.7774889807475232
            ],
            [
                0.668156539885831,
                -1.1823559891539788,
                0.030138841211635948,
                1.1357118366810075,
                0.32200435335287886,
                0.8505780024927898,
                1.1790969984460486,
                0.08304032020776571,
                -0.5352616454181602,
                -1.0670234694056173,
                0.034542374447543225,
                1.0927402074266188,
                0.010076044853175415,
                -1.9848289976849018,
                -1.454192116817521,
                0.6292538390954205,
                0.3831546469258724,
                0.5586882462846314,
                0.029227759482157886,
                1.1276505058244664,
                -0.4691591512846871,
                -1.0965670646671521,
                0.4574502751844529,
                0.6668613467580787,
                -2.4511700548653237,
                -0.9416694415206538,
                -1.614526230679086,
                -0.8075417042270103,
                1.9699825202305565,
                -0.6098077555074696,
                -0.6692789124697557,
                0.09440911812160652
            ],
            [
                -1.7367903263705706,
                -0.5784493036566921,
                -0.8447483542705649,
                -0.8201062805451772,
                -1.5110200661658,
                0.2853600082307711,
                0.8971157603518876,
                -0.33103162200934844,
                -0.25540040282514814,
                0.5367142590623593,
                0.5104408602377754,
                0.6463287317337321,
                0.31850440808247604,
                -0.8009961270936891,
                -1.2546534222997132,
                -1.1213897604099714,
                -0.003514927209730189,
                -0.3355095330343081,
                -0.040818325975275974,
                0.1898364312028908,
                0.5070112443114905,
                0.8278898638557785,
                -0.5797626385705597,
                1.8503465597807112,
                -1.2639027654137882,
                -0.6007953159506976,
                -1.5511956203975334,
                0.6518622292394993,
                1.5819575184711554,
                -0.09459872438642176,
                -0.8138845941881998,
                1.2456626946878786
            ],
            [
                -1.3777236003310998,
                -0.6630450642769682,
                -0.5211992574320292,
                0.6934451340778833,
                0.6294361252242275,
                -0.2430858009986881,
                -1.1308320247274533,
                -0.8948097274589137,
                -0.9468856831606419,
                0.22514091309819714,
                0.9024423411642991,
                1.4718251897267685,
                -0.17112354817125264,
                0.23737717133296413,
                -1.1181088441794231,
                0.4389973631425589,
                -1.1726112849761747,
                0.2890831292728218,
                -1.534094625870082,
                -2.085630416129938,
                -0.9358510223548417,
                0.21659925898659044,
                1.7190476253841092,
                0.5876141744812019,
                -0.7445218518995655,
                0.6191269521515173,
                0.5459213778405191,
                -0.5982341834232319,
                -2.610498531545013,
                0.20705356490144952,
                1.9189647588939502,
                -0.2681044515355036
            ],
            [
                -0.5922875145196888,
                -1.1891968711357788,
                0.6830179483253601,
                2.13491641888243,
                0.24130099468770083,
                -0.235677105278575,
                -0.7790138322917713,
                -0.0014299450687307734,
                0.6476470821916408,
                0.049121822422368316,
                -0.062180949653485716,
                0.6522421846558504,
                0.679973091566203,
                0.33584070869939714,
                -1.4141948267129092,
                -0.803550844673112,
                -1.629123494303078,
                -0.37630379614562415,
                -1.2625730815322924,
                0.1847375817519791,
                -0.3695387873677129,
                -0.6421223986166589,
                0.4276194488023884,
                -1.1656787982249737,
                1.2568180769573787,
                1.2938539036380492,
                1.1236854990936063,
                -0.10855789697628979,
                -1.1776789674985868,
                -0.2715943275859824,
                0.8205478310597268,
                -0.055707630667657985
            ],
            [
                1.4612223823866533,
                -0.2467573013741262,
                1.9040023733451055,
                1.3213473617424458,
                0.4972532873990786,
                -1.5178226299738,
                0.6802590923067264,
                -0.6340541704002832,
                0.9531243744101804,
                -0.010399111718618894,
                -0.12611379113783186,
                -0.3718982381199124,
                -0.8369681287095264,
                -1.082350336806599,
                -1.9440775202803702,
                0.08476607402082693,
                -2.245538358498592,
                -0.9653301226984118,
                1.240255552261835,
                -0.042189416538599075,
                -0.424865428267961,
                0.8586779521983803,
                -1.139267638653242,
                -0.7752584738168896,
                1.4844629690120874,
                -1.4714095949556638,
                -1.300303984773395,
                0.4348239442600264,
                -1.023756403315002,
                1.140497800299,
                -0.9907669917162358,
                -0.9758665856207215
            ],
            [
                1.1535912176952894,
                -0.22663877274237684,
                0.06921223150052014,
                1.3932665174612975,
                -0.6535711717158986,
                -0.022807398429748733,
                0.7043549273684074,
                -0.3873993073101338,
                1.610841012091987,
                0.6098495068485136,
                1.6427448865224774,
                0.27491627136625674,
                0.08249230080371053,
                0.6691154311796016,
                -0.31970993736894326,
                0.2983850872448665,
                0.8916803069747259,
                0.5739961851891769,
                -0.2753815643471131,
                0.05013088365654455,
                0.1756120006758296,
                0.2425624504010336,
                -1.0247453716209904,
                -1.8339769794502683,
                -0.657713969426371,
                0.2218526975240784,
                -1.239849439084684,
                -1.832775951112984,
                0.24229632490079078,
                1.5142433444707954,
                0.19568999144699775,
                0.3085111262710906
            ],
            [
                -1.5247580541686658,
                0.08349240639472318,
                0.7109759728823898,
                -0.19061704057609766,
                -0.5435436768573894,
                0.9873925271199688,
                1.3161849285317218,
                1.7263789018062965,
                -0.24769903375391153,
                -1.985916664540167,
                0.4651028759858039,
                -0.6380296922971793,
                -1.237373581111199,
                -0.516906035016572,
                -0.32317532212753836,
                -1.5947332468326405,
                -0.11489902715530814,
                0.6551248996404123,
                -1.0774241855084914,
                -2.1293241032812813,
                -1.5661301152473388,
                -0.6937741836886282,
                -0.044389817412706756,
                1.3862681299022148,
                -1.2964423499466815,
                1.1724084185908052,
                0.6705570619405724,
                -0.692402472912278,
                -0.4338737662011339,
                -0.882729906359887,
                0.10484839086246486,
                0.1818708057566697
            ],
            [
                1.0458360200525474,
                0.5635415841781309,
                -1.3792990591187946,
                1.676280676999649,
                -0.5389951476693869,
                -0.1558029530220941,
                -1.0460222859230681,
                2.5157673771493685,
                -1.1944071737348012,
                -0.19054801957016385,
                0.8443639449719346,
                0.724136065430527,
                0.6820873087856499,
                0.6561531716041902,
                -1.4226014013103985,
                2.071178541725397,
                0.8441599466418411,
                -0.038597219748437356,
                0.6082518678023221,
                -1.1266894595282597,
                0.8502100204903895,
                0.5230967745374233,
                0.6479779490831291,
                -0.5189174307482441,
                -1.753040254350633,
                -1.3252413568738406,
                1.1512085468602682,
                -1.9762765267644449,
                1.0304544977407755,
                -0.4570321269222037,
                0.6716344509830445,
                0.36570612892640786
            ],
            [
                -1.3808113231070118,
                -0.21227011988618097,
                -1.5464991914143278,
                -0.555442078610198,
                0.47805297221097903,
                -1.6635382127411509,
                0.855652519991223,
                -1.4456539395681496,
                0.6581195888102385,
                1.8678531923815134,
                -1.0180169961779717,
                0.9109679173153089,
                -0.21148942017298866,
                0.36409306072376924,
                1.2078642273093807,
                -1.035186433879908,
                -0.007856603285116483,
                -0.3248649024391007,
                -0.3821449966399432,
                -0.11446665624712049,
                -1.2551095991491958,
                -1.0453901279734337,
                -0.17796064665285222,
                -0.6097467989866813,
                0.9143483777727163,
                -0.7162462726687133,
                -1.4822055142982637,
                0.042138139677848574,
                1.2085903516845828,
                -0.046444219143170734,
                -0.9378768746936108,
                0.5141537028474381
            ],
            [
                1.4076158044515508,
                0.5412060057695427,
                -1.0211453192387652,
                -1.6449597376651386,
                0.06678700124795395,
                -1.5190062494466976,
                -0.5357445394410693,
                1.1258793814067598,
                -0.1567757411890367,
                -1.1675815380184944,
                1.1592170343952448,
                0.4479384166262484,
                2.3891508356373152,
                -0.7994995331247512,
                0.5796357963795219,
                0.2064992746656863,
                0.42670039114184266,
                -1.9806548680517606,
                1.019627065067627,
                0.21018046521476497,
                1.2125041144085897,
                -0.11951648389521041,
                -0.1070875866414331,
                -0.05022911511459243,
                -0.9777659493024671,
                -0.3579944340807106,
                -0.2607906164722863,
                2.270921220135333,
                0.7161423811593205,
                -0.3560824018760169,
                1.7531145149860594,
                -0.6901301450153411
            ],
            [
                -0.23405955380315085,
                -1.117449104775291,
                -1.9464676380752928,
                0.43844390035962727,
                0.3997654886540498,
                -0.33868086917387114,
                -1.0255268804133382,
                0.0248385775124777,
                -0.8325684971314486,
                -1.0657388224021571,
                0.09906354093044864,
                0.11639533796411625,
                0.22918684062713565,
                0.20743505320100264,
                1.3431131747802456,
                0.49429232467450834,
                -0.6802421580244229,
                2.115536022437856,
                -1.577674749232024,
                0.008490316325800454,
                -0.08881543592200841,
                -0.15169525045140977,
                -0.28283204713703564,
                0.5223016938244393,
                0.2756179804085323,
                -0.43876762582395495,
                -0.32287898874372917,
                2.0066498386455396,
                0.17324569478849608,
                -1.4403558447151172,
                -1.0713725833468402,
                0.7845068754579209
            ],
            [
                1.4683091547559362,
                -0.17484531532103845,
                -0.2240348205598869,
                0.13883133980961823,
                0.7515163413979512,
                -0.6087286822027085,
                0.9940547841864401,
                -1.0341227595477978,
                1.119543182318477,
                -0.7058918037484863,
                1.0676039285536008,
                0.29641340316601084,
                -0.011657660533741752,
                -1.5020454284197322,
                1.815755685529721,
                -0.6268913292938488,
                0.33970839299285727,
                -1.2929217702518119,
                0.2897347201969266,
                0.8526947386430401,
                0.0008852339748012966,
                1.7980883959921685,
                -1.3439854443036896,
                -0.5330643908635943,
                -0.5967369827810073,
                -0.5201044979055109,
                1.140738955936379,
                1.271524529313642,
                -0.9454656186791824,
                -0.9950993978431474,
                1.427550062416913,
                -1.056818445275394
            ],
            [
                1.6616900280544993,
                -1.1208714500676442,
                1.289822435847589,
                0.5372255191078393,
                0.6431783056435719,
                -0.14621722932206757,
                1.062511508775591,
                1.1596442054339295,
                -1.8572059960884293,
                -1.9783309278896284,
                -2.3036068106458236,
                -0.14675482573185067,
                1.2978559014967046,
                -0.0088079654187058,
                0.5561284285846564,
                1.109723089677567,
                0.6005955392952881,
                0.7057918005960845,
                0.6186405497503034,
                1.5035445581546727,
                1.202882052601968,
                0.035268752202709294,
                1.2090610914056452,
                0.1966356169303795,
                -0.7291484334825787,
                0.545107959405387,
                -1.511643530046986,
                -0.24359557109246677,
                0.10999560661086806,
                -0.048960290467647785,
                0.548877403859031,
                0.5699202770246995
            ],
            [
                1.1255143836615493,
                -0.12755727280101134,
                1.8229484893354384,
                -1.2391039706071503,
                -0.012534001896865623,
                -0.4335116406717291,
                0.6298934290845287,
                0.5352603510599646,
                1.2579904613361619,
                -2.1860825200538025,
                0.6871837708354913,
                0.12382221874826461,
                -0.11277015639905728,
                0.046009101835847804,
                0.2613102935716762,
                -0.5740682125073174,
                -0.04481494084669166,
                0.2939891295069509,
                -0.7917503491256787,
                -0.3497782401276397,
                0.46734978602152694,
                0.7660885451486498,
                -1.2516994984967804,
                0.08383788040750427,
                1.2920059417666785,
                0.2173919428838566,
                -1.1160086199824917,
                1.5734181317965077,
                -0.8642067916169232,
                -0.7351290683314574,
                1.6771299089877107,
                -1.0466850874141953
            ],
            [
                2.338963508374039,
                -0.6862187538402943,
                0.9990532769356686,
                0.3624956527930421,
                -0.46982402527777833,
                -1.137809422476484,
                0.24906055392075693,
                0.45921620923396694,
                -1.6703685993365693,
                -0.811288643068906,
                -0.15964815477009486,
                0.16767442220417778,
                -0.7613125611803606,
                0.4330942293732505,
                -1.4374069506581124,
                -1.7842863212205131,
                -2.110729568285036,
                -0.4675595883422493,
                0.682099361399806,
                1.3323818625356094,
                0.8481882872181972,
                -0.11514987190408592,
                -0.6695439555735109,
                -0.060543358270412434,
                -0.9201945259045465,
                -2.5964254434692005,
                0.38774751905453564,
                0.8249575424522227,
                -0.2623635281035233,
                -0.7005338193344658,
                1.0025734825007304,
                0.023212992262192023
            ],
            [
                1.1540893230101943,
                0.0667211259112849,
                0.23867681845849623,
                1.488227542669551,
                0.9378152394721745,
                1.0314000813269175,
                -0.5861219830022973,
                -0.9268729495984619,
                -1.670456808190318,
                -1.2628874888243715,
                -0.8962592424851048,
                -0.4802803451277628,
                0.32255183035432994,
                0.2998368436669247,
                -0.01347361973455004,
                -1.3305910058362438,
                1.1861558075320315,
                -0.14267721210927617,
                -1.0494772315959882,
                0.5743887357018358,
                0.5482622458122101,
                1.6136331647453424,
                0.6502975656740284,
                1.6016844380033288,
                -0.4811052358006814,
                0.6766761479367698,
                0.8478019546351355,
                0.8795055477792862,
                1.3021578310020465,
                -0.41750225277672,
                0.2972313334851956,
                0.06848244740053942
            ],
            [
                -1.6735999825538008,
                -1.9609275526919145,
                0.24484542304056392,
                -0.774819363248544,
                -0.18483126124439359,
                -0.5239779593256071,
                -0.37188966052597106,
                1.5443865256379068,
                0.06620908914341442,
                -0.8378499771641885,
                0.2420600200661401,
                0.9869443800687767,
                0.2561634010603658,
                1.4610947023304512,
                0.5606801437235219,
                0.135223537146865,
                -0.49045068421902605,
                1.293040725917631,
                -0.29563041576330357,
                1.1854658156528364,
                -1.1212840798464383,
                1.6341711455784855,
                -0.1811775810422894,
                -1.39927641083615,
                -0.037878986396464205,
                -1.449642149870961,
                -0.8702171469819777,
                0.7418146904541392,
                1.2021082917022765,
                0.32494764754184396,
                1.667872430277082,
                -0.7386331017070794
            ],
            [
                0.6578003406067423,
                -0.8334854287037748,
                1.5808538815115567,
                0.6605618100469298,
                -0.7197341137823259,
                -1.2212204823998947,
                -0.17448701926706725,
                -0.18441720478558207,
                -0.5234115234156651,
                -0.19637799621260996,
                2.117421604158829,
                -1.1754267637132176,
                0.8957420437342656,
                -0.6662356850028273,
                0.06505410869617746,
                -0.8808273558821192,
                0.3376307480451406,
                -0.660203946788242,
                -0.9494000687015172,
                0.6201039591210245,
                1.0109101545255044,
                0.5331721105205476,
                -0.44315091617093083,
                -1.7583944962309557,
                2.262259883182934,
                -0.5781548803867791,
                -1.1654086018580152,
                -1.943336770359493,
                -0.06244764975508072,
                0.2790371038672486,
                2.3491265040162124,
                0.7535954034527315
            ],
            [
                -1.5969953613622927,
                0.04576533456492616,
                0.089747768998069,
                -0.7194054277837831,
                -0.8577839193356199,
                -0.8908579014871641,
                1.0844422247042018,
                -1.349548276834735,
                1.256679410092567,
                -0.893543849583724,
                1.678260628056288,
                1.39201861603838,
                -0.04949245955741518,
                -0.6629049330264706,
                0.05683067574527805,
                0.4280634967212939,
                0.24992319472487617,
                -0.9387782726442806,
                -0.4874383809819229,
                0.9596260111751473,
                -1.3179539740465476,
                -1.0028429696718104,
                -1.2192874420582371,
                0.42767917847396275,
                0.08705963156315948,
                -0.2372177985574461,
                0.07830404021169744,
                -0.4986339932695734,
                -0.5747604056392276,
                -0.7772044190334656,
                -1.356106959989289,
                1.5816442891336477
            ],
            [
                -1.9442687866033062,
                -0.33354592554851725,
                -0.7410316977934436,
                -0.41099006491778184,
                -0.4010141820239412,
                -0.038248545700897495,
                1.293812427353699,
                -0.19171402585040165,
                -1.212940615659075,
                -2.643712568837486,
                -1.1399603877863382,
                0.49283777816594293,
                2.4183539800651634,
                -1.2670271642551705,
                -1.2162722333163556,
                -0.2765694575200919,
                -0.13214416614741373,
                0.23688281707539754,
                -0.52270909796564,
                -0.9781147995824102,
                -0.710480626878289,
                -0.8454158305124612,
                -0.09153940304409001,
                -1.6299291373253992,
                -0.8956905793156363,
                -1.4480015624716402,
                -0.4943868778553073,
                -0.8759163217013798,
                0.19798947762097377,
                -0.397958191244608,
                -0.997980483287443,
                1.0346046817435404
            ]
        ],
        "bias": [
            [
                0.6749971491046541
            ],
            [
                0.8394892331678719
            ],
            [
                -0.9845832710551813
            ],
            [
                0.8220914132902303
            ],
            [
                0.1368695095492569
            ],
            [
                -0.19867775192795317
            ],
            [
                0.13481222510821814
            ],
            [
                -2.156751099936785
            ],
            [
                0.44576177673791556
            ],
            [
                -0.08847335396345438
            ],
            [
                -0.37988071587818395
            ],
            [
                0.397140305431713
            ],
            [
                0.11188671433288892
            ],
            [
                -1.1067196208816004
            ],
            [
                -1.164517491492271
            ],
            [
                0.2536620053328784
            ],
            [
                -0.9899724826612721
            ],
            [
                -1.724686665616357
            ],
            [
                1.7302832265737909
            ],
            [
                -0.22696640375503419
            ],
            [
                -0.5265127174941294
            ],
            [
                2.1738443202273237
            ],
            [
                -0.5258503342482109
            ],
            [
                0.0896065889489401
            ],
            [
                0.18516557563918376
            ],
            [
                -0.6939145258953702
            ],
            [
                -2.6337504003820538
            ],
            [
                0.4092747820139227
            ],
            [
                0.18227308010048587
            ],
            [
                -0.30142566338692484
            ],
            [
                -0.691483961070751
            ],
            [
                0.3877735051060981
            ]
        ],
        "wantBias": true
    },
    "Layer 1": {
        "Type": "neuralNet.Sigmoid",
        "outputSize": 32,
        "alpha": null
    },
    "Layer 2": {
        "Type": "neuralNet.SGRU",
        "inputSize": 32,
        "outputSize": 32,
        "internalWeights": [
            [
                -0.004813684995848449
            ],
            [
                -0.01776680091185541
            ],
            [
                0.00894004714896798
            ],
            [
                0.022501534154378243
            ],
            [
                0.02447774520522795
            ],
            [
                0.02173982201861213
            ],
            [
                0.0189725170278547
            ],
            [
                0.016792698850515358
            ],
            [
                0.019382043441809205
            ],
            [
                0.019814225830756524
            ],
            [
                -0.011917803365949567
            ],
            [
                0.0016609783181006745
            ],
            [
                -0.03949815035836987
            ],
            [
                0.002066942681916914
            ],
            [
                -0.007607384918071481
            ],
            [
                -0.030441957182990854
            ],
            [
                0.030440491046766303
            ],
            [
                -0.013228502477361577
            ],
            [
                0.01199173567766728
            ],
            [
                -0.0032158637556074276
            ],
            [
                -0.02397662236897638
            ],
            [
                -0.027566146259972276
            ],
            [
                0.020057045325251478
            ],
            [
                0.012571603444377872
            ],
            [
                -0.018277699383231844
            ],
            [
                -0.021037404419519682
            ],
            [
                0.006888812418529072
            ],
            [
                0.02021727727626281
            ],
            [
                -0.013536575182836883
            ],
            [
                -0.0038700980222967597
            ],
            [
                0.004310974216935791
            ],
            [
                -0.019535860910055776
            ]
        ],
        "externalWeights": [
            [
                1.2617281652922254,
                0.09893205413297093,
                -0.21580116822542014,
                1.230405472601996,
                -0.387895901764024,
                0.6007249193917348,
                -0.5314458783945011,
                1.1669654305891315,
                -0.8179519610039488,
                -0.5458252951273559,
                1.2403605115713288,
                -0.30983250026926945,
                0.6019052336960283,
                0.8400168852458227,
                -1.6461931361950828,
                -0.09487477556930377,
                -1.3068255730204223,
                0.690802342213063,
                0.2269384533362372,
                -2.3454511422420654,
                1.956100297230488,
                -0.2355681964464851,
                0.4204382435697017,
                -0.8434926754076537,
                -0.3135120717960392,
                -0.5371990944886905,
                1.0622334162457228,
                0.44504333192077833,
                -0.3656755918153692,
                1.458462359148278,
                0.1476784346602209,
                -0.48691335449706236
            ],
            [
                -1.2594448163422396,
                -0.5468423855056489,
                1.770474787531169,
                1.0826115842460091,
                -1.2734539170309986,
                1.1655660796218275,
                -0.36883142683667136,
                -1.2306906686641765,
                -0.09044001079059193,
                -0.6157422005718202,
                0.9958401738899695,
                0.8513960363657604,
                -0.24348495956286897,
                -1.4431987001957747,
                -0.44328676091835567,
                0.9892453615218715,
                -0.04363325480228089,
                -0.37352605638791686,
                -2.081134412380535,
                -1.0301290861851415,
                1.58722013547729,
                -1.0567678835882575,
                0.4172476463707995,
                -0.9549895784268385,
                -1.1416780590295714,
                -0.23878587335804521,
                -0.8919790506344486,
                0.358802377421807,
                0.2460474238047689,
                1.1630046454615235,
                -0.6546201137340925,
                0.18475796187477056
            ],
            [
                -2.2533996274701713,
                -0.2495375231660557,
                0.14209467857616911,
                -1.8604530880656618,
                -2.8681937104627315,
                1.5198062214355252,
                0.8286092911981091,
                -0.5172858257779525,
                -1.4998033543248235,
                0.7057879907860625,
                0.7596873280933705,
                1.5744578416779236,
                0.3172010584693285,
                -0.5743164780459799,
                -1.038843925491461,
                -1.545815571311888,
                0.42306724996617917,
                2.1040588702296223,
                -0.17791741722199889,
                -0.2680496410222975,
                -0.19367727980316496,
                0.6965876883071168,
                0.4065604314059692,
                -1.1907568681257428,
                -1.0113670531255183,
                1.4774104494386366,
                -0.4033058921722325,
                1.5626464079299291,
                -0.21269848700146796,
                -0.6700141408027789,
                -1.3843788017951786,
                -0.4043107302352966
            ],
            [
                -1.2075559974107222,
                -0.6139867101320824,
                -0.0915536972148157,
                -1.523143256037605,
                -0.017585257977848243,
                1.6591250382635345,
                -0.9873355438811213,
                -1.4426596089783625,
                1.525382601718039,
                -1.9947662502722385,
                -0.5155889309259469,
                -0.4546968750465915,
                1.0291736479617535,
                -0.2610790204760308,
                -0.8139818101841007,
                -1.3816433433927664,
                2.827908241891255,
                0.06753670262129155,
                0.8200724988275547,
                -1.240135866145322,
                -0.01765306350908048,
                0.8446382086361758,
                0.3020967225491666,
                1.893861921496617,
                -0.5242222112302702,
                -1.094160867735008,
                -1.8212978918551879,
                0.6229160031303268,
                0.2723520345654025,
                1.0731955402322113,
                0.23127812556568167,
                0.408786243435196
            ],
            [
                1.3443366012203795,
                0.6337423447996987,
                1.3026042230754589,
                -1.943810843732784,
                0.7534653507708609,
                -0.23288830693061802,
                0.47878318147290905,
                1.2937420893431237,
                -2.056022783875099,
                0.6561335917967867,
                -1.6633159045299353,
                0.2536893312017504,
                0.01214160225790967,
                0.6853865818419919,
                1.0325874997007478,
                0.15869884132581066,
                0.6048724898665075,
                -0.3722100212469924,
                0.5543765359507293,
                -2.9015924590782105,
                1.5441759675310447,
                -0.8556664696100367,
                0.3119674988224103,
                0.6488977384571449,
                -1.3377581062786144,
                0.17170173112126946,
                -0.6787485822160797,
                0.024610155398089757,
                -1.478429658788056,
                1.3798794360600908,
                0.7934886899701281,
                -1.5010318893049708
            ],
            [
                -1.6663521901306908,
                0.6200182749654082,
                -0.2081542053415621,
                -0.8035836657481766,
                0.6216100392551552,
                -1.9371326930555024,
                -0.14033394189894155,
                -0.20949431844427696,
                1.312100274149453,
                1.4735513263878917,
                1.0645901515215872,
                -0.7027035763378982,
                -1.5664680437291356,
                0.07923547355946046,
                -0.33640884061744225,
                1.2566974024138917,
                0.37936569222871336,
                0.3290744581839659,
                -0.3694955983171586,
                -1.1439126995728344,
                -1.7408297865323232,
                0.7046720609166987,
                -0.5891133235096443,
                -1.194961109435521,
                0.04304214676968972,
                -0.025046728679372937,
                -0.33951997756214475,
                -0.30365114092134077,
                0.3072371183109476,
                1.112530232375182,
                -1.0536848232558809,
                1.9652690304638194
            ],
            [
                1.2878566528066089,
                0.4915482357245981,
                0.3786464685674255,
                -0.29360316210795095,
                1.715184541391844,
                -1.0947111553330013,
                1.6186799217416095,
                1.5807012545817838,
                -1.2136501394435746,
                -0.40142526635667625,
                -0.3995960964832476,
                -0.14864417800437807,
                -1.0185964606381481,
                2.0846846334287696,
                -0.10903063715339623,
                0.4407000572626054,
                0.4557226456750357,
                -1.0294344881823003,
                0.8827165007891573,
                -2.1607486599430166,
                -0.8955112517201688,
                0.9905047856534325,
                0.7880772958777007,
                -0.14470316199294841,
                -0.49891006441925,
                1.1210589743999255,
                0.414649499103059,
                0.11214264742658808,
                -1.6916050419806319,
                -0.7971443561591299,
                -1.4338156305837815,
                -1.2516058844058817
            ],
            [
                2.4462299301039803,
                0.14755294926666895,
                -0.6852342765453636,
                -1.1307956178724003,
                -1.0651533527857895,
                0.1751750187309918,
                -0.714132875702358,
                -0.6745115788415704,
                -1.040077710792432,
                0.5189308288002392,
                -0.13326371422617786,
                -0.5577729503739102,
                -1.1817627420361947,
                1.9075044942426906,
                0.4774176593906085,
                -1.4702548041927923,
                -0.8517335059403909,
                -1.5661769364230693,
                -1.4949538900199808,
                0.7204892672076917,
                -0.913842837175347,
                0.6544285078186439,
                0.8659323544355517,
                0.4284537411059266,
                1.4288419867259996,
                0.6635800533990369,
                0.6686156085418804,
                -0.0880014823081956,
                -0.13079400037846892,
                0.4678623506014653,
                0.16891589122029235,
                -1.822435309163029
            ],
            [
                -0.7347692059699452,
                -1.5846780231435673,
                -0.4724550318929471,
                -0.48610576492349206,
                -0.16083292284343398,
                1.5335788490186024,
                -0.16992440172564136,
                0.08554834545563669,
                -2.2280809175478913,
                -0.3393450147656348,
                1.68246402339059,
                0.07268586754616795,
                0.8377737788035547,
                -0.7827952559662528,
                0.6958906836740173,
                -0.9456033688574091,
                -0.1907851868787849,
                0.39170836101774054,
                -0.46838932459234184,
                0.48806530390198966,
                -0.7680057856764311,
                0.017867550049015683,
                -0.3724479312483221,
                -1.2020703279497198,
                -0.37489402793465154,
                0.7499167199468486,
                0.8541304902761415,
                1.619970596746511,
                -1.792992005142988,
                -1.0901663097948344,
                -0.4587391756845068,
                0.7264063113637905
            ],
            [
                0.26121812452017945,
                0.18936693287780634,
                -1.3698327455963444,
                -0.11571427686111188,
                -0.013365310445266614,
                1.5135018473154251,
                1.1675831548836022,
                1.439257412523482,
                0.12616490564882682,
                0.12900358576672719,
                2.2132244229094034,
                0.744217659984253,
                -1.0703686201786637,
                -1.280986387840991,
                0.7882561394584812,
                -0.3092564847861292,
                0.5787762058595162,
                1.8889349956294623,
                -1.3641195288790544,
                -1.1797296458941524,
                -1.1475619144262277,
                -0.0980214679659698,
                1.048579683098304,
                0.6799101777023133,
                0.07334460778679677,
                -0.49697290265635224,
                -1.4919022757912748,
                0.4313379929726283,
                1.1472816008397067,
                -2.2650929807841393,
                0.8936247807407751,
                0.34725569606683365
            ],
            [
                -1.9608626409117553,
                0.2310333993175507,
                0.3489010921211133,
                -0.3188910548737139,
                -1.1178901327221704,
                -0.22004624702671016,
                0.053186787672052226,
                -0.24314237725117208,
                2.209814399604129,
                0.8524128416660306,
                -1.520702202134998,
                1.6610995932379016,
                -0.9336981786728319,
                -0.18637827705787258,
                -1.088682617868913,
                -1.0493988669205976,
                -1.3126730770991855,
                0.593843894450419,
                1.0100176740624125,
                0.4497282809427966,
                0.16238269634973407,
                -0.4508186112231347,
                -0.7152458286883119,
                0.7119880729588633,
                -1.108428235023157,
                -0.09196074668229069,
                0.4540974923976239,
                1.833008819833527,
                0.5108318767770696,
                1.0257426409318362,
                1.1152119198194534,
                0.9510585498670963
            ],
            [
                -1.04823461173792,
                1.2785315236462642,
                -0.5854059000245285,
                0.657509210414777,
                0.934554380787498,
                0.48413113640633754,
                -1.1669281250705899,
                0.5809541621290596,
                1.4506611956443713,
                0.313033102799444,
                -0.46061885794860014,
                1.3990627319192321,
                -0.7898105211787425,
                -0.9960535857841444,
                0.06412479695120772,
                0.43911506464060984,
                0.30363381846934967,
                -0.6519516281147086,
                0.32126234361366934,
                0.4960279898933124,
                -0.7731257238780973,
                0.260098610668976,
                1.5622719916287002,
                1.581725492124199,
                -0.9056096553398293,
                0.72369243116944,
                1.2870880690555881,
                -0.9279040312282597,
                2.367600675630388,
                0.11810424685971464,
                0.6374930986395354,
                -0.9141345449666594
            ],
            [
                -1.6547171360530688,
                -0.3943724030965785,
                1.1832016876375904,
                0.7028720505702165,
                1.4343600119800586,
                0.4422173591119427,
                0.5611618153011577,
                1.4328525044134062,
                -1.0829297598265262,
                1.6684323102842298,
                1.254857003868097,
                0.16499379858421748,
                0.07865807372547841,
                -0.922814867084735,
                -0.5130795281991796,
                0.6909146759244624,
                -0.6793120170068803,
                0.9654100469817233,
                -0.30071565603522155,
                -1.1828906785091524,
                -0.07877507931057175,
                -0.09656369700934297,
                0.3928708518160911,
                0.9280582188875324,
                0.9089262964473118,
                -0.11947996352133448,
                -0.17712134882824748,
                -0.053975439927479954,
                -0.4808208355148378,
                0.6797282930542823,
                -0.5089063466629176,
                -0.7866663459926022
            ],
            [
                0.28806788255385263,
                -0.5968165792126906,
                -1.9442456250312432,
                0.7642715349433873,
                1.6960978041181745,
                -0.7316259935389944,
                -0.4044338403670417,
                0.18401981244417867,
                0.708258054995929,
                -0.19102398073793198,
                0.5293090393291513,
                -0.183884839059368,
                1.510114389554035,
                0.8525298685099588,
                0.4503447142927518,
                0.21057668959966144,
                -0.3564121846306675,
                0.9855790949185926,
                2.027740882412771,
                -0.2240698038103702,
                -0.4432419647245622,
                0.9103690785205374,
                1.2117709306099451,
                0.8845062643185096,
                -1.5330359920595973,
                0.6935916857050832,
                0.9593000956716083,
                0.7001792736757526,
                0.012765655618216132,
                0.39234054771929977,
                -0.32351858737718203,
                -0.16750532558486442
            ],
            [
                0.09548810440513833,
                0.27303827496861793,
                0.15245396335814257,
                -0.20266320895458254,
                -0.05818408418959584,
                -0.45527607136104536,
                -1.0140157644626064,
                0.33548588763224896,
                -0.8773414722751036,
                -0.7467654978485913,
                0.17287275507619723,
                -0.8769903467348031,
                0.37301894426290577,
                0.01616535282395549,
                1.3963971248708726,
                -0.9327333668949045,
                1.1180013604037695,
                -0.28604859893082635,
                -0.18075170848756156,
                0.9191011367025578,
                -0.5313710903335161,
                -1.2768391310089178,
                0.20516779419566905,
                -1.3075859040577213,
                0.2567244986047464,
                -0.11384285430453,
                -0.4710987237429301,
                0.883025226858853,
                1.1326261124663377,
                -1.928613385914043,
                -0.19888454136386272,
                -1.1428399803106497
            ],
            [
                -0.6052974342020074,
                0.19014583273482,
                0.9044313156646512,
                0.27862748112391433,
                1.0514413806152223,
                -0.8075492813270984,
                0.9398206253986269,
                -0.13589594434641114,
                1.0147157625314067,
                -0.1118492787427325,
                -0.19146278779703782,
                -1.2662642632428167,
                0.8394866301599637,
                -1.400721342058456,
                -0.03949281302359634,
                -0.42217977767819426,
                -1.6568874733080194,
                0.4819698649919158,
                -0.22062199432266857,
                1.3114049968994739,
                -0.5731026359463979,
                -1.4974968439124332,
                -0.17111726564491342,
                0.17816190502124846,
                0.24564693001112337,
                0.22284689625520235,
                0.5291209757687623,
                -0.9699599893319765,
                1.3297614465234624,
                0.7323312007427464,
                -0.9782093540361823,
                -0.7072159895711421
            ],
            [
                0.25343835451388824,
                -0.6901063514883173,
                1.9514633371652543,
                1.1351566473693107,
                -0.8223271409353295,
                0.04038680156746362,
                0.3337434314924823,
                1.0033089899883834,
                0.12085919644237009,
                1.054693145665012,
                -0.21040352557099526,
                0.4257539954262845,
                -0.3203166738708483,
                1.4378093527590377,
                0.0689800268797047,
                0.30140811158773717,
                0.38249654394686466,
                -1.7236282936507552,
                -1.0804335775986484,
                -1.4325231818366677,
                -0.737057619922774,
                0.09307958555819426,
                -0.08395428428232017,
                1.1333189847068919,
                0.4101454600501851,
                -0.5242135377710669,
                0.3113252464815946,
                0.5983771921560173,
                -0.2700071537215405,
                -0.8829302566602221,
                0.34121960585674416,
                -2.349340576766429
            ],
            [
                1.3162042328526353,
                0.031124589136340895,
                0.6457907456301639,
                -0.506759450960255,
                -0.6240951556654815,
                -0.46854636739993205,
                1.4350505816939199,
                -0.7408154974969295,
                -0.33252486541951404,
                1.2473749500536937,
                1.2815149514385678,
                0.5771940565568736,
                -1.2028790754361445,
                -0.963986784529378,
                1.1853990980093674,
                1.043729246109043,
                0.48814193644873094,
                0.07083180791317288,
                0.6333901904111994,
                -0.4087817616095138,
                -1.0087263721991744,
                -0.12279760462203414,
                -1.0297248876607994,
                -0.9972501721431527,
                -1.7396449156450249,
                0.7562054665951519,
                0.20472684873690644,
                0.695472848571651,
                -1.0306028723195557,
                0.6854289274401854,
                1.135719806811973,
                -1.242695226517939
            ],
            [
                -2.0453329579716693,
                -0.3037551902734104,
                -1.1202903770656556,
                -0.22500146207316948,
                -0.8801197177186673,
                0.6486046226187265,
                -1.9272099962053948,
                -0.9749471445899327,
                -0.46803267516245445,
                0.9789512091870713,
                -1.379911218404511,
                -1.8950983391777827,
                0.16848649530404247,
                -0.17027260149109455,
                -2.09955374363211,
                -1.3868586753776684,
                0.11561247766794654,
                -0.4181730793283901,
                0.1955313627552096,
                1.3297417552298492,
                1.0415651464430842,
                -0.7565945935643851,
                0.40264315211189483,
                -1.1518419116567074,
                1.4173619724551978,
                0.7164877829902817,
                -1.6768377324199142,
                0.023831119094973277,
                0.07193662217563208,
                -0.08572440080136393,
                -2.115867682779257,
                1.4893038042448163
            ],
            [
                1.4398702343097736,
                -0.04680385692621917,
                0.045433691301718634,
                -0.912119633323801,
                -0.23779736120733175,
                -0.6402935550493093,
                -0.6362965357812607,
                -0.2507378499875617,
                2.335628326863618,
                -0.47738177356735134,
                1.1800946000493873,
                -0.06360373932223162,
                -2.1766680559393543,
                -0.78430118619441,
                0.8762803581479656,
                -0.2529848864537453,
                -0.04441827794929995,
                0.7247882029346207,
                0.015220860978523642,
                -0.36020317646176636,
                0.6393229545578106,
                -0.36456543136256886,
                -1.1887082148920605,
                -0.7190257388091655,
                -0.2990846091167113,
                -1.3186350821340227,
                0.6844788455380085,
                -0.433865720856276,
                0.642386443498582,
                -1.365391987338118,
                -0.1827762241464941,
                -0.41795847731890895
            ],
            [
                -1.8096394983127944,
                -2.141707714522524,
                1.4625148714007936,
                0.24731920201144525,
                0.48014246535288313,
                -0.9064931541785859,
                2.8531948732510752,
                0.5189161838393768,
                -0.7383546278084739,
                0.08982325489791211,
                0.6589067411381838,
                -0.950829563323355,
                -0.4896191434468732,
                0.12781019621945727,
                0.05597029776464758,
                -0.2551791236791743,
                1.5414918392474546,
                1.2437810085578171,
                2.3255944669732607,
                0.6792839523913614,
                -0.7989732108520355,
                0.5101448042606862,
                0.10064022067919849,
                -0.7878787552161215,
                1.008962895463375,
                -0.175983624017647,
                -0.28184498051711687,
                -0.7154118927937799,
                -0.901826022817052,
                -0.4812175948402694,
                0.7966801847968601,
                0.6732713795817579
            ],
            [
                -0.14272951564888323,
                0.8224505698101089,
                -0.13055523625808854,
                -0.14564424176871768,
                1.164709880630705,
                -1.633056988033218,
                0.47617345379322223,
                -0.36984837660784264,
                0.28308658298333406,
                -1.7731117037808444,
                1.0048335667248742,
                -1.5734932656410339,
                -0.026720293907302965,
                -0.25660932622411065,
                -0.8671442697528755,
                0.15525424597319287,
                -0.9684584758311394,
                0.057045182796009515,
                -0.3341421455945572,
                1.3147192572489321,
                -1.8046717583024905,
                -0.27060783515983416,
                -0.8561409896844444,
                0.8235367209869797,
                -0.12555982514696568,
                0.39830784307301187,
                0.7867970978509692,
                -1.995109611906765,
                -1.4543162407284593,
                -0.39407482621967804,
                0.2140608671600741,
                0.7522383935093454
            ],
            [
                2.2308274199934934,
                -0.7233725398872578,
                -2.8223078540645474,
                -0.6575456915395027,
                -0.9049745887548539,
                -1.295521130921135,
                -0.9281957161499923,
                0.5798223291094436,
                -1.272198854470989,
                -0.8988675200641406,
                -0.3548658726553548,
                1.4283467797153846,
                -0.4704247282569673,
                -1.0799952329566131,
                0.10971303739188121,
                0.2528956249352478,
                -1.622333401327526,
                -0.4074789302508762,
                2.7589059378158587,
                0.8011417116715456,
                -1.0383611522579457,
                -0.380993538769105,
                -1.0492233638169326,
                0.46499437250999837,
                -0.545417803960028,
                0.7817103240172191,
                -0.05563688557168584,
                -0.5077089438377732,
                1.1868575523544393,
                -0.6025206036137436,
                -0.8111355207347514,
                0.949590563018873
            ],
            [
                0.6642327995041445,
                -0.12300955094257546,
                -0.19691145056072698,
                0.023583502931945707,
                1.0121503955445772,
                0.27200957503735,
                1.5362992923027097,
                0.3546810767083739,
                -0.7558539200077216,
                0.7694712991017666,
                0.3416164955193375,
                -0.23778410841119768,
                -0.16757579945854076,
                -0.11334908369778363,
                -0.13864829777227428,
                0.9530256771074785,
                0.38471274555767543,
                0.9608188655554631,
                0.8680116471489205,
                -0.3148361325219577,
                1.5362983143893096,
                -0.19787210347143477,
                0.6880473058988223,
                -0.7273608426111862,
                0.3173811265311233,
                0.6981440954746666,
                -1.1451330418763872,
                0.25209565133421163,
                -0.9208008922258827,
                -0.7832310577275163,
                0.17554740839957533,
                0.10139191649610568
            ],
            [
                -0.9609602171187391,
                1.1224705679826112,
                -2.230802562867517,
                1.3609983283317446,
                0.7118176853166501,
                0.42844143563433074,
                -0.24674821463828062,
                0.37391227148855566,
                -0.5581624709874665,
                0.272966003196127,
                -1.1234198215034494,
                0.42212855225418683,
                -1.5521967515786697,
                -0.05313551669465805,
                -0.3906857930526137,
                -0.3974034621121901,
                -1.019531271118643,
                0.4122218053095741,
                1.2591611483847274,
                -1.0069411466698703,
                -0.14659163587419863,
                0.8111868995841591,
                0.16720438692418402,
                0.6960334571417324,
                -0.07655265036474976,
                0.8182082030001896,
                1.0400310075123393,
                -0.9238060467134762,
                -2.338608746328031,
                0.037372183995721814,
                0.03333730360918598,
                -0.4481575589643166
            ],
            [
                -0.10577538244309619,
                -2.575192116355389,
                1.0588423714065445,
                -1.4387051744903985,
                -0.1442797177056864,
                0.6799356220606791,
                -0.30936548507279843,
                -0.9809399460179407,
                -0.4613783623827817,
                0.4102885101010327,
                -0.1275960946592701,
                0.15602208701021147,
                -0.03314115083526244,
                0.45834465033192706,
                0.495506428090554,
                -0.32968377165036267,
                0.2732883870971635,
                0.39752315164743196,
                -0.15267049171053784,
                1.2872550028533465,
                0.855739916414852,
                -1.4527416618694686,
                -0.21833087493948222,
                -0.09596890891388063,
                -1.6439534098573263,
                1.0175266997557944,
                1.442713683300084,
                1.3661724097932308,
                0.46246983281743353,
                -1.701400497972795,
                0.5358181441710561,
                -0.7602329318314679
            ],
            [
                0.3041586447272718,
                -1.0923622448090646,
                -0.19084196945259344,
                0.5255546130917678,
                2.7723356292447088,
                -0.2956882439999622,
                -1.9251603704456812,
                1.19834891046117,
                0.8209590984933168,
                1.2291018293523144,
                0.04541691238345907,
                -1.2887805386108877,
                0.5590441504043341,
                2.0896545369511914,
                0.5877751805301048,
                -0.05923567636937364,
                0.8598670897166226,
                -1.285660495014785,
                -0.4741717284685116,
                0.5318027717555138,
                -0.40785267309051393,
                1.0719486799763251,
                0.29880254621139807,
                1.0621778296195337,
                1.6061315547238069,
                1.8469067559160777,
                -0.6809625689716661,
                -0.301545366508487,
                -0.3600108579054812,
                -0.970152819084635,
                0.01795827111165078,
                1.1381053224258308
            ],
            [
                0.1863815575711037,
                0.9086946969387096,
                -0.04981523229994432,
                0.7047564282682878,
                -1.2277239843334202,
                -0.6659942748174614,
                2.1502842915185645,
                -0.3093669032347223,
                0.46552268589719137,
                -1.0876394794811384,
                -1.766582354783656,
                0.49751482774895495,
                -0.957057544745649,
                0.1948655996443989,
                -1.185504873079344,
                -0.576054262471348,
                0.3194180896375516,
                -0.09433425055410521,
                -0.7244466874421952,
                1.9194875754408005,
                1.349173311369708,
                0.3713278734269204,
                -2.760620251273885,
                0.9868016336861439,
                -0.35496195474474446,
                -1.2824324232491202,
                1.5722179692317173,
                -0.01692473167652776,
                0.4784338188655292,
                -0.024088518214778688,
                0.03667429362976898,
                -1.9830848290557936
            ],
            [
                -0.5692953244221755,
                -1.6778820079244043,
                -1.4902746589988538,
                -1.7504705073901254,
                0.2203367690713904,
                1.1156970944447009,
                -0.1734001458382696,
                -0.7077473298765824,
                1.1098563610445225,
                0.059631720185476744,
                -0.29820018740671034,
                -0.4412102162844716,
                0.41201513811091284,
                -1.4743906014314272,
                -0.17759849534923144,
                -0.8228679339231036,
                0.8871861514501204,
                -0.48428863310286924,
                1.4352873834043325,
                -0.7007977885556096,
                -0.4784473990954022,
                -0.6441029124004906,
                0.5399977676779679,
                0.9362080049560048,
                0.3427033558965291,
                0.00012042585287235045,
                -0.08787499673499419,
                0.14561497380286836,
                1.9093064887477562,
                -0.3290170585952676,
                -2.339184199340019,
                -0.907508295807943
            ],
            [
                0.8453358691691751,
                0.6442292165836259,
                0.5065069863286602,
                -0.6615972385652615,
                -0.02984760989153247,
                0.7261355587033279,
                0.6883815502253102,
                0.09942032936090425,
                0.10875294481507597,
                0.2887114209843913,
                0.10683125011346548,
                1.5968825106702778,
                0.27924707788921443,
                0.5687049303274594,
                -1.6578364593337749,
                -0.7822745019807958,
                -1.357255934904219,
                -1.5633822864836842,
                2.6997551114731473,
                -1.1311392340165256,
                -0.15638577228983347,
                1.9521119954949528,
                2.0031074154961623,
                1.028058871833813,
                -1.1375562003925073,
                1.3963210471655214,
                -2.155712471581854,
                -0.42581945670229776,
                -0.7299843002265456,
                -0.6784718649331942,
                0.0421511760860357,
                -0.7481825947253086
            ],
            [
                1.051150129515523,
                -0.3021417821382437,
                -0.2119363066575491,
                0.9259478201151536,
                -0.39786524846069976,
                -0.4015648262564271,
                0.043209443216901434,
                0.42740220521311245,
                0.8935919243183397,
                -0.23793794480101793,
                0.1658932678804249,
                0.822399739182621,
                -1.1102465978006306,
                -0.009372292888026627,
                -0.19986011926211766,
                1.5649508212524796,
                0.43486331484537016,
                0.7374886230695693,
                -0.269151808137675,
                0.49260526751631656,
                -1.1866095300406656,
                0.9313839360118371,
                1.5038795228433919,
                -1.4347901152776101,
                -0.6257788543725452,
                -1.7887418987713641,
                0.007083417199191239,
                0.7513001075647218,
                0.16902551833582555,
                1.1929145206612861,
                2.384781123657084,
                -0.6610474987881975
            ],
            [
                0.26160623178727366,
                0.3904759301856751,
                -0.6077412831053508,
                -1.1565078424386104,
                0.5292981072914791,
                1.3786717289122343,
                -0.44361077834668644,
                -0.5159126602082981,
                0.7565982532812117,
                0.32867161799734046,
                -0.12137301518664428,
                -1.3818996235552323,
                0.948167952317109,
                2.0245783991738318,
                0.529831096477235,
                -2.2155113633272325,
                1.8154631436207267,
                0.24733455917315222,
                -0.1000271963135765,
                0.9411385188624608,
                -0.9059736293503104,
                0.012738981851931664,
                1.7829202002050002,
                0.03176453241777467,
                -1.1864757257494045,
                0.5193321876861053,
                -0.26532313391857615,
                -1.0003554062524087,
                -0.4678376173991094,
                1.3077122090887539,
                2.426508073493714,
                1.1568604105561155
            ]
        ],
        "bias": [
            [
                0.3359378814624124
            ],
            [
                0.2066979822992756
            ],
            [
                0.5378879709743283
            ],
            [
                -0.761870308325391
            ],
            [
                0.16040011071370475
            ],
            [
                0.3888637941684469
            ],
            [
                -2.1022099253314916
            ],
            [
                -0.05852453121160337
            ],
            [
                1.9419218865836498
            ],
            [
                -0.154498197994569
            ],
            [
                0.47598812340766383
            ],
            [
                -0.01784576546287368
            ],
            [
                0.16091055194682355
            ],
            [
                0.3004335947685273
            ],
            [
                -1.0041385902235818
            ],
            [
                -0.9746242732942445
            ],
            [
                -0.9245198475875062
            ],
            [
                1.202049939198502
            ],
            [
                -0.007798457525563289
            ],
            [
                -0.013135604294529325
            ],
            [
                1.0876001157562272
            ],
            [
                0.9020681948611152
            ],
            [
                0.2457098503090844
            ],
            [
                0.8667067278436844
            ],
            [
                0.039486267330484236
            ],
            [
                0.2650505600992957
            ],
            [
                0.6600419788415187
            ],
            [
                -0.4421620626275616
            ],
            [
                -0.2580626216824486
            ],
            [
                0.7379470242399535
            ],
            [
                -0.10156619012119801
            ],
            [
                0.7389155628549396
            ]
        ]
    },
    "Layer 3": {
        "Type": "neuralNet.Tanh",
        "outputSize": 32,
        "alpha": null
    },
    "Layer 4": {
        "Type": "neuralNet.Dense",
        "inputSize": 32,
        "outputSize": 32,
        "weights": [
            [
                0.89826514672693,
                -0.16902604281452668,
                0.20549202180905873,
                0.5823534733887334,
                -2.186960981864739,
                0.5098152074102446,
                1.2423159447686853,
                -0.9171507172291351,
                1.149497278893014,
                -0.7313071719508728,
                1.258678355467808,
                0.7148248891173616,
                0.15991328715835312,
                0.08425761617704683,
                0.18000158484904355,
                0.4627325849198907,
                0.16099802837294366,
                0.7727936517510704,
                1.2330732221646985,
                -0.6657307724097435,
                0.2670004120833079,
                1.9587663412735659,
                0.04268873191731743,
                -0.2810830564041256,
                -0.051548307351554364,
                -0.8131358223633453,
                -1.2962922817756688,
                -0.17758814551840285,
                -2.011410820463339,
                -1.2545999449039225,
                -0.8976410076577831,
                -0.31545859477850685
            ],
            [
                0.20848859572325557,
                0.37263156627932237,
                -0.15000110217529736,
                -1.617396025395531,
                2.1628854527464108,
                -1.1514406936494659,
                0.700086056905847,
                -1.7362607861359933,
                -1.591391951323781,
                1.5601867852107345,
                -0.8344573275580073,
                -2.27719602269079,
                -0.05228503643572163,
                -0.4444755461632615,
                0.47879151804603454,
                0.4418767598712238,
                0.23525923715038477,
                -0.5960983958340974,
                2.105306992364362,
                -0.01057783890229682,
                0.3387779031330074,
                0.8769057279177255,
                1.65037131551569,
                -0.15107313781672024,
                0.15473643160797995,
                0.4133301398785233,
                -1.4556550453054433,
                -0.41405069973531505,
                -1.9164979771007817,
                -0.6314418862656744,
                0.02171154525564775,
                -1.1609278064783848
            ],
            [
                1.4407339612518546,
                1.4081691051223548,
                -0.4603757510269068,
                -0.9107842132797046,
                -1.0929746138793264,
                -0.2911966468227862,
                1.0397134888935984,
                -0.3860844508640435,
                0.8099152321668165,
                0.5138073891285345,
                -0.6723244873573511,
                -2.077081188038187,
                -0.20534361610920016,
                -0.347175367699993,
                -1.0504293358838548,
                1.0929118913024236,
                -0.18580565204485336,
                1.2068957868616068,
                1.4945844930035292,
                1.6015968620117864,
                -0.622623918312882,
                1.135783773867999,
                0.6170591803860935,
                -2.1923189785120676,
                -0.2720465222865448,
                0.521513245338502,
                -0.14162246608753107,
                1.5233932405302253,
                -0.28699551337652024,
                -1.1282818232132394,
                -0.25684953372025715,
                -0.10122843392146354
            ],
            [
                -1.8667559877125497,
                -0.8143161541031525,
                1.654131518641181,
                -0.43391810163986244,
                -0.6112868367416062,
                0.8651057467108972,
                -0.0767523876774206,
                -0.9314843866216201,
                -0.28004111665656184,
                -0.6240973291076056,
                -0.23253525983301052,
                0.35620390410135777,
                0.7354992113575196,
                0.8508445455441814,
                1.556024806012076,
                -1.3410052004179553,
                0.20793332689618074,
                -0.2325647147524465,
                -0.9174733560642255,
                0.1717262574875225,
                -1.3210740326012254,
                -0.24842399028828022,
                -0.5049528391807542,
                -2.1252641369800167,
                0.6937214456823555,
                -0.32796158631635614,
                -1.471578778515583,
                0.3954650545495776,
                -0.049912787683177993,
                -0.20343761639738306,
                -0.13969223621912857,
                -0.02703978040588922
            ],
            [
                -0.170841224694718,
                -1.1914120638442345,
                2.1501856368776315,
                1.8803073016392948,
                0.10973012571636123,
                -0.876842174468758,
                0.8914962472867582,
                -1.462278179553247,
                0.4728901814612697,
                -0.3954478630646544,
                -0.3998202888987085,
                0.47178097973789823,
                0.6021510038983382,
                1.1666935431912167,
                2.260305272843722,
                0.9277539957989464,
                0.8673408637439896,
                0.1513087039928164,
                -0.3557998927560927,
                2.649550641697015,
                1.1933492668160695,
                -1.0960677044796923,
                -0.6100431061280173,
                -2.023866654255589,
                0.44537321369851357,
                -1.2155270757224874,
                0.13888036754644165,
                -2.3119307097666786,
                0.8607408969855325,
                -0.6697424548161108,
                -0.5142446400149477,
                2.3133935561588808
            ],
            [
                0.4887175573496467,
                -0.41482000513246436,
                -0.4181637520902688,
                -1.1839512757188844,
                0.6413851762959896,
                -0.7267997556844731,
                -0.17859555111913883,
                1.4588666644954775,
                0.826692852512131,
                0.373634631063419,
                0.5438996232520843,
                0.301652634267587,
                -0.6467069198951052,
                -0.04457358860882508,
                0.8005296241413283,
                1.2487874680626896,
                1.26553915900122,
                -0.7098277513526294,
                -0.4207517479265558,
                -1.4194346755660945,
                1.001791915134473,
                0.9876530136100796,
                -0.3467116428915793,
                -2.2195986768140283,
                0.23148414751842053,
                -0.4347881630072832,
                0.2615049988500951,
                1.2674298236145631,
                -0.45777325917722883,
                -0.6087263760032186,
                0.3092405613623033,
                0.861686205722558
            ],
            [
                -0.4098917701475736,
                1.7682490540981044,
                0.47518152782088446,
                1.5581500031132014,
                -0.5363249022018283,
                0.2431276556107197,
                1.859681211133972,
                0.7943298754526126,
                -0.02345214162104728,
                0.5463806505776966,
                -0.8137298873036478,
                -0.5932462317295436,
                0.3878642069597971,
                -2.0642060251293994,
                0.1715673210919232,
                0.5826151759199957,
                0.7035983992505167,
                1.4491132111761569,
                -1.1324838789008622,
                -1.0509147675845654,
                -0.7848742671440716,
                -0.3906222445288525,
                -1.0919238162930418,
                -0.5284547948145356,
                0.26005617897078515,
                1.7754819174024135,
                1.4540094558862533,
                0.43134768224640624,
                2.230482667027926,
                -0.39428560230216597,
                2.422061889530395,
                -0.10945568113691284
            ],
            [
                0.7748576296251659,
                -2.0029148839940016,
                -0.7153700527431481,
                -0.3448358689783092,
                0.378005629784198,
                -0.6491240389056191,
                -0.00926347723989992,
                -1.802096567339119,
                0.8941259916862261,
                0.5805178161400117,
                -0.8580644548854821,
                -1.4692563643987604,
                0.7608098717113945,
                1.1633928204257393,
                -0.6187916013405916,
                -0.01769498710772129,
                -0.38119572162524523,
                -1.1326170252088181,
                -0.03137980834271753,
                0.597567252695786,
                -0.28296337948833056,
                -1.7084708319478852,
                -1.6623476350914899,
                -1.5784524604311654,
                0.10306013093631126,
                1.1002531207492123,
                0.20059856328969877,
                -1.1710851216832578,
                0.6485686752503012,
                -0.21958611515762577,
                0.5239977701788284,
                -0.18180636349993826
            ],
            [
                -0.21199560869651346,
                -0.07769071575669542,
                -0.9488744344290319,
                1.090984618795919,
                -0.8903248805532123,
                0.32495565891696987,
                1.051267080458174,
                -0.735074335249753,
                0.5144378560256786,
                0.6433036347583934,
                -1.4430918164600957,
                -1.0834248472859789,
                0.7370158119518292,
                2.2167834730708535,
                -0.007372071085352209,
                -0.08461768915126605,
                -0.503568184251397,
                1.4353449548070207,
                -2.0049489180187936,
                1.6543138891839038,
                0.06622014222447088,
                0.9778278891701031,
                1.6485709604148153,
                -0.7442606046110755,
                0.6342317511031035,
                0.7885337301938014,
                1.3192165490034997,
                -0.8245881645237935,
                1.2065805156879241,
                -0.46731821292018977,
                1.0150924521706732,
                -1.6515074455114767
            ],
            [
                -1.7411357773453882,
                -0.29381519509843845,
                0.7717826832645345,
                -0.7216308269755689,
                0.7755140505915106,
                0.6965820180002014,
                1.4299448582638168,
                0.723519125471225,
                0.030776956152283923,
                -1.6460698283324924,
                0.6716460849669544,
                1.0047660299371541,
                -1.7694803026200725,
                -0.32104133655278555,
                -2.078412652310219,
                -1.0017166199998315,
                -0.10156371462097889,
                0.33277151750452527,
                1.4167833749153163,
                -0.5236085779165874,
                1.5499545535658639,
                0.6776068287685739,
                0.31854812182053904,
                0.14471022937220715,
                -0.21991878715192234,
                -0.2439589307163635,
                1.9135575716857272,
                -0.24129699195849819,
                0.8468214212034475,
                -0.6896298350401127,
                1.096998147697251,
                -0.6175838028868562
            ],
            [
                -0.31228254811318296,
                0.19304258075361977,
                1.443941701290166,
                -0.3310593792863658,
                -1.099102233323199,
                -0.12806461233136848,
                -0.6937390400666732,
                1.834299795728587,
                -0.6405892609080496,
                0.08350996460979936,
                0.7611036991411565,
                1.0491874235944672,
                -0.8110487725645363,
                1.504386041431197,
                -2.02950773142686,
                0.5373916471253346,
                1.1963982439309333,
                -0.10333056721282595,
                -0.5616762973273651,
                0.28049695876614583,
                -0.40170332150333005,
                -0.18369176743106122,
                -0.2883221742476915,
                -1.9810225958819048,
                0.7213740661256478,
                1.6892954608530584,
                0.9585317567457952,
                0.6710445868016436,
                -0.19956707921044975,
                1.5778751079987987,
                0.9239180221363382,
                -0.46550622844469886
            ],
            [
