{
    "Type": "neuralNet.FFNN",
    "LayerNum": 6,
    "Layer 0": {
        "Type": "neuralNet.Dense",
        "inputSize": 9,
        "outputSize": 27,
        "weights": [
            [
                0.06385118668227631,
                0.04458271446644694,
                -0.015568376669528301,
                -0.024487737994831494,
                -0.006463756609981636,
                0.10421818266676505,
                0.021579057285704657,
                2.163764699119844,
                0.023485889444832115
            ],
            [
                0.2018987100570998,
                0.4189701801182518,
                0.15420849058064598,
                0.22442940791938498,
                0.19103129282865047,
                -0.4543326092847927,
                0.19185885244073114,
                0.3421610734884351,
                0.5747530854135032
            ],
            [
                2.420515901161935,
                -0.5159389314262081,
                0.6814462207236203,
                0.15303655146905096,
                0.05900921057661337,
                0.34530122454321127,
                0.24567110722767038,
                0.037408901335138724,
                0.22679747052385912
            ],
            [
                0.26273196776951496,
                -0.16890055367713408,
                -0.19630922740205825,
                0.002404495153320296,
                0.9163543724398003,
                -0.17572409029234076,
                0.1704716585315008,
                0.07131532710914022,
                -0.5570895718201306
            ],
            [
                -0.5164743394093949,
                -0.927200539444246,
                2.687382652220407,
                -0.6707990187503526,
                -0.18352000135254715,
                -0.5811092830794514,
                0.7854762028373031,
                -0.5798413234634555,
                -0.30419239969241063
            ],
            [
                0.10426368201113571,
                -0.6946486680733241,
                1.372458295315618,
                -0.1418367304263939,
                -0.3327260783864234,
                -0.28425114342413776,
                0.1821952771740254,
                -0.2110397052947195,
                0.012446849766869602
            ],
            [
                -0.190421499153907,
                -0.22758856964928248,
                -0.09104072480664006,
                -1.3676907961922986,
                -0.5091238632025333,
                0.10591627831674479,
                -0.20959065834061877,
                -0.4088140127780253,
                -0.09917747999598547
            ],
            [
                -0.2892675482411712,
                -0.28312700532853785,
                -0.1625242798089591,
                -0.1947063727254998,
                -0.03821888129649771,
                0.04424781495108683,
                0.06701264017880058,
                0.8209817482224604,
                -0.7306576967419173
            ],
            [
                -0.13085462695120473,
                -0.27062704529039816,
                -0.2099396673863437,
                3.1655891025969303,
                -0.3427000870486507,
                0.013325251141128019,
                0.14992155597725387,
                -0.2635418646907008,
                -0.12057282727434672
            ],
            [
                -1.3322051618323436,
                -0.6555336271924598,
                -0.4310819311226633,
                -0.3658530614999269,
                0.1008113740158006,
                -0.0653098355235098,
                -0.5491534528043822,
                -2.0933827878383524,
                -1.8430853427090392
            ],
            [
                2.1328834030242034,
                -0.3037965719458733,
                -0.19408547739700485,
                -0.3846115906409869,
                -0.8048148883112368,
                -0.30979349182929045,
                -0.003682068742255737,
                -0.09427880381680104,
                0.2690893944870337
            ],
            [
                1.52373170193198,
                -0.014196111850945712,
                -1.8337883761195959,
                0.09436350422534436,
                -0.1513827449964619,
                0.16010384196592684,
                0.21786288491445338,
                0.039740809317842705,
                0.21999599206692413
            ],
            [
                -0.2632586712066018,
                -0.13735539784716416,
                -0.08986226892887365,
                -0.12245503587459196,
                -0.14148072962999367,
                1.500175215055213,
                -0.19929053305936725,
                -0.04577844203706048,
                -0.057327646454436006
            ],
            [
                0.43054069533685385,
                0.16970560247032443,
                0.2274577945302567,
                0.6308491894513059,
                -0.4127617488663985,
                0.29911184387271267,
                0.8858418210350997,
                0.2179216208363102,
                0.37191694004830467
            ],
            [
                -0.10984392233003522,
                -0.1399247909046448,
                -0.14523439539876354,
                0.24119447290378698,
                0.29481227511953845,
                0.5034435599732856,
                -0.092565002128027,
                -0.14866961615960583,
                -0.09922068175203026
            ],
            [
                0.27871228072437704,
                0.29589698552544075,
                0.336519340230504,
                0.6079948326128964,
                0.5638655832345044,
                0.5642220509123886,
                0.3980951492734598,
                0.7703572245177828,
                -2.965884704133094
            ],
            [
                -0.8094307055770226,
                -0.9679125248853352,
                -0.5471944973447113,
                -0.7342565335796759,
                -1.1490444046844714,
                -0.6853332088920405,
                0.9099275270735958,
                -0.9093698684282355,
                -0.7659662354493658
            ],
            [
                -0.3139398175352198,
                0.15595247619613137,
                1.9095980965639987,
                -0.019226559205853488,
                -0.014329496505981835,
                0.1303561770161775,
                -0.0942229036028853,
                0.18200780679503906,
                -0.14618983087920312
            ],
            [
                -0.4819557574700399,
                -0.19543181474199783,
                -0.29209265589767947,
                0.061468155747195975,
                1.9236881829221113,
                0.017154779355627568,
                0.12946061139326015,
                -0.09472116080792287,
                -0.006176690494253337
            ],
            [
                -0.06692450753337136,
                0.15943135555114074,
                0.3469497817808364,
                -0.08509005951205938,
                0.1611999852213832,
                0.20530782405232795,
                -0.43122817157664023,
                -1.7859079264397832,
                0.07352240545587965
            ],
            [
                -0.0918533752399784,
                0.10317569205439504,
                0.08898251295637787,
                -0.3632674593856822,
                -0.25360971683380257,
                -0.34680234510645647,
                -0.4773571259270356,
                -0.3294275314309094,
                -0.854933841306608
            ],
            [
                -0.8849856884577961,
                -0.24668999697064514,
                -0.1740436678215426,
                -0.3106557592346736,
                0.3728132859927768,
                -0.006829466787190274,
                -0.3351184789281606,
                0.07209070354570217,
                0.384676585715907
            ],
            [
                0.12806973921657125,
                -0.41939432896334267,
                0.1565186944249585,
                0.22418438668514376,
                -0.1452151045728057,
                0.2371463457108505,
                0.262146132422602,
                1.123429943672793,
                0.43280797969689677
            ],
            [
                0.3065586013018766,
                0.25313350388025146,
                0.33218456035986715,
                0.3298470112256888,
                0.40375358009670864,
                0.3958034582573597,
                0.4264688046456464,
                -1.7472794372606621,
                0.29162272043408083
            ],
            [
                0.23311710591866028,
                0.2555545451968013,
                0.4704292179858374,
                -0.0345144349323666,
                -0.20998820658278308,
                -0.03092019840765723,
                -1.1074015883276978,
                0.03267514916692264,
                0.06264187858537845
            ],
            [
                0.19676706480457318,
                -2.939465038004179,
                0.738148110935736,
                0.22704731785474735,
                0.2762239226971244,
                0.7020132188179621,
                0.4679245203872862,
                0.16040467007052647,
                0.7020890055778087
            ],
            [
                0.02939421623329368,
                0.003113248987781257,
                0.42610557312955216,
                0.00040946203181899517,
                -0.030688091450543898,
                -2.516667279322537,
                -0.10414455129893307,
                0.10584635077433349,
                -0.1630212482189873
            ]
        ],
        "bias": [
            [
                -2.3890431908468814
            ],
            [
                -1.2062893687019554
            ],
            [
                -1.2015041278034517
            ],
            [
                1.174698458673109
            ],
            [
                -0.5874093345485947
            ],
            [
                1.3011005500581447
            ],
            [
                -0.6419234328686102
            ],
            [
                1.1742140766319427
            ],
            [
                -2.205699635854417
            ],
            [
                0.2972091254459648
            ],
            [
                1.4490742877170248
            ],
            [
                -0.05781489282356108
            ],
            [
                -1.7479793432960824
            ],
            [
                -1.250495446442444
            ],
            [
                -0.43694122204902097
            ],
            [
                1.8945485266564812
            ],
            [
                -0.36965602314938706
            ],
            [
                -1.5423533094083846
            ],
            [
                -1.0960132728057013
            ],
            [
                -1.4915010854246518
            ],
            [
                -0.29509812529265
            ],
            [
                0.9559239668796679
            ],
            [
                -1.0023931115229547
            ],
            [
                1.6114641806240482
            ],
            [
                -1.016952805905427
            ],
            [
                1.5406625228937643
            ],
            [
                0.8239860566477978
            ]
        ],
        "wantBias": true
    },
    "Layer 1": {
        "Type": "neuralNet.Tanh",
        "outputSize": 27,
        "alpha": null
    },
    "Layer 2": {
        "Type": "neuralNet.Dense",
        "inputSize": 27,
        "outputSize": 18,
        "weights": [
            [
                -0.2442083060111052,
                0.05297079180511878,
                -3.176596621455548,
                0.6718616935334819,
                -0.5566038511732738,
                0.8528060695871539,
                -1.4397990578000004,
                -0.21550846028518064,
                -0.020279445006131196,
                -0.1085977067200506,
                -0.3550082483600797,
                -2.6511334314954333,
                -0.36059783728379713,
                -0.4752738652817658,
                -0.4804327325944672,
                0.127625814368154,
                1.35220166756888,
                0.8718079511776359,
                1.299377135814801,
                0.12128970440296657,
                -0.5893842300497887,
                2.3084289271552882,
                0.792283382493208,
                -0.8858028915068097,
                -1.7552998217096047,
                -0.8852016313989158,
                -1.3467383825287
            ],
            [
                -0.6804839832031945,
                -1.7855620049540293,
                -0.21620273146199076,
                0.19976353976284678,
                0.2375381736747966,
                0.4654878073964651,
                -0.41653441928284857,
                1.1370349684898533,
                0.35897341144423506,
                0.006989397369505287,
                0.06000297344319172,
                0.07455519483658007,
                -0.3512956540949291,
                -0.32632716480423657,
                -0.7206970375867925,
                -2.5849160015253485,
                -0.38076132473714014,
                -0.3505582988483069,
                0.894962881041343,
                -0.31481124060381366,
                2.2062866702418407,
                -1.2494140506437736,
                0.20134179600883406,
                -0.30401268534605463,
                -0.8058360753827494,
                -0.19857657582331992,
                -0.5324068054440549
            ],
            [
                0.2532960665741863,
                -0.6436181307925712,
                0.1729182911694088,
                -0.7571776430743158,
                -0.7162981302510585,
                -0.10055319140695992,
                1.4263567527988799,
                0.3921057378557882,
                -0.4041987488727692,
                1.4780588979717553,
                -0.15920373785299613,
                0.8516465039198705,
                1.682486656313326,
                -0.22782517746699374,
                1.8923908398876834,
                0.9190138389722984,
                -0.03434546993187989,
                0.7051952994543994,
                -1.023081279895404,
                0.062126595498486176,
                -1.4952393606519727,
                1.027787134129412,
                0.8103022570326316,
                -0.9315058763178575,
                0.6837715694661168,
                0.2034803481396857,
                -2.908265936228662
            ],
            [
                -0.19878766610737,
                1.7098437638705166,
                -0.012060983171110037,
                1.4612469193978352,
                0.43567251774392357,
                0.23687799427065173,
                -0.7774036283981292,
                -0.003714792840028956,
                -0.12845566826041907,
                0.022242481050174057,
                0.3770576612505087,
                0.09911378012824601,
                -0.5209194887630496,
                -2.876705905438558,
                0.9835016940234129,
                -0.21283146083963134,
                0.10484133980863107,
                -0.7258796747093219,
                0.7016693751858301,
                0.32984306342155445,
                0.698082425031508,
                1.4962912306808822,
                0.22264426899155504,
                0.7221553573702503,
                -0.499081869954373,
                0.10970775331880608,
                -0.22387390737459054
            ],
            [
                1.7083927092204552,
                -1.9800647234048452,
                -0.5213250816627593,
                0.03138009956048942,
                0.2525223626299515,
                -0.2933346935483072,
                1.223608276077678,
                -0.002833735968383117,
                0.26543214827195594,
                0.01160729376782446,
                0.3699531756208781,
                -0.3049293901769753,
                -1.9903838935189162,
                -0.34625486923240456,
                1.6697286396634068,
                -0.620887457545548,
                -0.062109891190830234,
                -0.30816075299840384,
                -0.24929553069187757,
                0.0023204192687000208,
                -0.39137472177968446,
                -0.6386673470379178,
                -0.3817553101434594,
                0.11796451682429195,
                -0.07637873648985308,
                0.06025145077448633,
                -0.37054472104280856
            ],
            [
                0.8557897935727454,
                0.7534860059525332,
                0.15433227447946468,
                -0.8283655699197482,
                0.2543784619440129,
                -0.5902109261566073,
                0.720952673490551,
                0.010040779115992694,
                0.03760164016592297,
                -0.1011481788308362,
                -3.1214582634325163,
                -0.8701441693388154,
                -1.879384176915521,
                0.11861815170346804,
                -1.6892475605336543,
                0.48735396243919327,
                0.4187349311581065,
                -0.5884841420054907,
                0.010604359222427086,
                -0.4707975640504869,
                -1.4782491941540803,
                0.7346866107377323,
                -0.6458237443616477,
                0.0674373531665174,
                -0.40748652120903694,
                0.02064049850576966,
                -0.8991224758608078
            ],
            [
                0.028316998288270327,
                0.37718522158608775,
                -1.5633740918572383,
                -0.7284263061047431,
                0.839003436557801,
                0.6959296378841421,
                -1.528529199975231,
                -0.6285580468640626,
                -0.381018563462271,
                -0.2935891089605294,
                0.37697819334840355,
                0.08657059798774329,
                -0.8047888137821377,
                -0.26570589022633445,
                -0.8140359053608918,
                0.9287076926403293,
                -1.4212850989963144,
                -1.7327108193410279,
                -0.14054056482762212,
                0.6880091804145296,
                -1.6702257696547362,
                0.5394609947938638,
                0.7816004667602181,
                2.129233896340994,
                -0.7098748072923595,
                0.9465229868502117,
                0.6450023820183736
            ],
            [
                0.9968969653316556,
                -0.8126912960376796,
                0.6676741715995436,
                -0.07983685731220073,
                -0.8790012727279818,
                -1.2272962354817463,
                -0.7819148537324219,
                0.8329260953638193,
                0.11262750591670091,
                0.39457919219707993,
                -0.41188527413894577,
                0.31891867131796653,
                -1.7618991472026868,
                -1.3998433119919251,
                0.08034953494421916,
                -0.48273024122497704,
                1.3015001135250834,
                2.083196014323996,
                -0.7824603842869016,
                0.3511643523151996,
                0.07631414045934383,
                0.6027228491392559,
                -0.725211648464178,
                0.27687993212898104,
                0.7262685796534626,
                0.7008674095439196,
                -0.3462331318168282
            ],
            [
                -1.3742987765263437,
                -1.6521045060858517,
                -1.114080619367547,
                -0.605321689372733,
                -0.3523331072446593,
                0.832087461170239,
                -1.1049151142534452,
                0.20002306031139994,
                0.3978040152006096,
                -1.2255289780935483,
                -0.5784984995306429,
                -0.08773859341399907,
                -0.583248403221136,
                2.255786953667246,
                -1.3189972617648569,
                -0.39481106328009763,
                -0.9734964882446143,
                -0.03879785597500173,
                -2.8915529593443456,
                0.954433798278272,
                -0.4729557261323961,
                -1.50964456587482,
                -0.6154499093870923,
                -0.6621447975801804,
                -0.6436467684535531,
                -0.19064212944173212,
                -0.13885514274164734
            ],
            [
                1.1485430349810368,
                -0.14095140092557762,
                0.6075145882202596,
                -0.8460899997580348,
                2.5516613142801865,
                1.3986493873181345,
                0.5982974367812387,
                -0.9324709906075888,
                -0.04031236264110087,
                -0.28960617422129326,
                -0.12835946837272602,
                -1.61745851245302,
                0.23653376974156354,
                -0.20843798740024796,
                -1.2356512799551482,
                -0.013339183733556107,
                -1.0479434835695258,
                1.675629681301497,
                -1.3870945859208335,
                0.805489595959994,
                1.4224282170260134,
                1.0200794556217572,
                -0.7873735984176858,
                -1.584065156491057,
                -1.478646869674149,
                0.5235271898532065,
                0.4297833385387328
            ],
            [
                0.5525892488656552,
                0.28609572812938305,
                0.21517055974639307,
                -0.9343334844530377,
                -0.004443860078328487,
                0.025592202023027474,
                0.1675046091759011,
                1.0882851797377013,
                -0.22859864116033476,
                0.10560138144572763,
                0.016755825585460942,
                0.04361242707649607,
                -0.9403251230406158,
                0.8470949993684754,
                1.0086274060984952,
                0.6872046027007539,
                -1.2350028367239096,
                0.5129703942577084,
                0.4500933077014565,
                0.028425696018715765,
                -0.36433269636529214,
                -0.12622064144636863,
                0.9928359025378314,
                2.668163422568879,
                0.2372418727889005,
                -0.24256976999708213,
                0.15006573530828773
            ],
            [
                -0.7079860730658462,
                0.6133625260838156,
                -0.14981390539839423,
                1.315584680397438,
                -0.17155020461645826,
                -0.3395280803034921,
                0.6617860415777009,
                0.6318842403088355,
                2.559459412823712,
                -0.2933210325423669,
                -0.005913866621463803,
                -0.4121240271097711,
                0.29705516869890586,
                -0.40837253481130453,
                -1.3349507507143505,
                -0.5026833439793299,
                0.04904641497029226,
                0.06723951361096066,
                -0.09714126695341081,
                0.954174259643378,
                0.9602735100050427,
                -0.13432346326825054,
                0.24063141674538555,
                -0.43789713821262,
                -0.6138094012196315,
                -0.08172695987313444,
                -0.2793376929479067
            ],
            [
                0.12951838810669247,
                -0.30062867710189145,
                0.008337569363771797,
                0.47040192279283777,
                0.020471360245382157,
                0.3132033325898567,
                1.869495742442521,
                0.3340124792469477,
                1.5967717270250934,
                0.04130901495205012,
                0.39671271432750854,
                0.1129931134989286,
                0.23770675345076353,
                -1.278737915382582,
                -0.7249368897411897,
                0.10025745307295365,
                0.6187589544563769,
                -0.33827896124582446,
                -0.09811507082254768,
                -0.35437818353168504,
                0.17426040432026738,
                0.9185302866982603,
                0.5106921062418308,
                1.0837796913439612,
                0.5412814286108797,
                -0.4468236710432147,
                0.2631689952668968
            ],
            [
                -0.8644598806811911,
                -0.42314049323202696,
                -0.5611451499107472,
                -0.18139887920641595,
                0.008066042162630765,
                0.2756384468151638,
                -0.23444016705561002,
                -0.5797859745908512,
                -0.28848148982399757,
                -0.192395581241739,
                0.238207064912422,
                -0.24320169989570795,
                -0.27761637731502603,
                -0.13879744402637326,
                0.015857019842266538,
                0.03633297973892925,
                2.3282901505064757,
                -0.6888770656808998,
                0.6578304172230829,
                -0.641301863918043,
                0.47030701684424087,
                -0.0697241078351999,
                0.2189659773115136,
                -0.1501249098192279,
                2.6170474684200347,
                0.18036523246225625,
                -0.25512341963668145
            ],
            [
                -0.6593300409624951,
                -0.4762490335832469,
                -0.34787540387183896,
                -1.3970303674963016,
                0.12205461619309092,
                0.7725508843338658,
                0.2527066739088342,
                -0.8171434268281941,
                -0.004604167192539576,
                -0.15375740593960663,
                0.029086717135895765,
                0.07144908332313873,
                -0.47899961129960783,
                0.15224842733924776,
                -1.0450096287150021,
                0.7400557720773648,
                -1.0026834851198623,
                -0.41953647661850857,
                1.3122698899716174,
                1.0339437728734997,
                -0.14767737341497814,
                -0.3670557720515179,
                -0.06452720445667354,
                -1.7673711366487705,
                -0.40963028940544055,
                0.03340391897907136,
                -0.4589222765893304
            ],
            [
                -0.16348585532934828,
                1.9227862856791629,
                -0.25160318775941926,
                -0.046858236754487886,
                0.3280014560967656,
                -1.2314105939463738,
                0.4476244889755009,
                0.2248713711634553,
                -0.5425767173631378,
                -0.20063712239199266,
                0.709202869367286,
                -0.8754623456029257,
                -1.2077493479014256,
                1.4802497178486873,
                -1.1755047072395812,
                0.1670078030925119,
                -1.0160329844373275,
                1.067043149470069,
                0.23541084227851453,
                -1.0868173595063417,
                -0.7033561022035492,
                0.22768040773748352,
                -0.8005619954969098,
                0.7981546631014564,
                -0.27294181986945093,
                0.6597115633832908,
                -1.05604777588714
            ],
            [
                -1.044080208962909,
                -0.21341167911435596,
                0.9887291532628631,
                -0.7298844050949551,
                1.2336887299452548,
                1.3545662734720607,
                -0.9241506786134805,
                0.8690544904469096,
                -0.28634159077662036,
                -0.0132969723875659,
                0.16103260701882616,
                -2.2768415604974312,
                1.3395011104453456,
                -0.6098724139913841,
                -0.0029614315791980936,
                0.0960652853142123,
                -0.2830246705439939,
                -0.9831615257464776,
                -1.5597157464403069,
                0.13945863382203816,
                0.05844578065663493,
                -0.12821769653267426,
                -0.5568444921171898,
                -0.258494891317589,
                0.7443998305472795,
                -0.06405317250248695,
                0.45730406967534054
            ],
            [
                0.18266399739909284,
                1.3376623876021867,
                -0.9455593994128624,
                -0.9552580639922814,
                0.10847817262966901,
                -0.6164857500313662,
                1.0162367347980636,
                -0.18534801371575793,
                0.02320445722394564,
                -0.026685832731037796,
                -0.6978677561700416,
                0.03636383346139999,
                -0.1267128680484246,
                0.7038482173865669,
                -0.6165447879958553,
                0.504153503723774,
                -0.8421316967991871,
                -1.2120479585240373,
                -0.19833189738120283,
                -0.12444968190100286,
                2.1986866311431603,
                -0.1590229543426697,
                -1.4198031750888769,
                0.06437520802021107,
                0.3091712105690625,
                3.2564474356947684,
                -0.04039271999935835
            ]
        ],
        "bias": [
            [
                -0.6175710924839426
            ],
            [
                -0.4403654399808716
            ],
            [
                0.1536538523192552
            ],
            [
                -0.4589486156204732
            ],
            [
                -0.2791241465874621
            ],
            [
                -0.6940297929916255
            ],
            [
                3.1473461997109546
            ],
            [
                -1.0265876873030595
            ],
            [
                -1.3260668738291594
            ],
            [
                -1.3398275424757355
            ],
            [
                -1.0507913539727098
            ],
            [
                0.2455367799474213
            ],
            [
                -0.08788067431212954
            ],
            [
                1.5111292950561444
            ],
            [
                1.1738818793224957
            ],
            [
                -1.0527372006497406
            ],
            [
                -0.4567350282609906
            ],
            [
                0.3339869378182033
            ]
        ],
        "wantBias": true
    },
    "Layer 3": {
        "Type": "neuralNet.Sigmoid",
        "outputSize": 18,
        "alpha": null
    },
    "Layer 4": {
        "Type": "neuralNet.Dense",
        "inputSize": 18,
        "outputSize": 9,
        "weights": [
            [
                3.6378820977964956,
                0.22865751223905226,
                -0.3332454474906894,
                -0.5257536914407027,
                0.5863020747977034,
                -3.748224373876561,
                -1.0999097199166499,
                -0.9888857831325225,
                -0.16631082134166644,
                0.09557711461182457,
                -0.4653756169380804,
                0.23988373924656428,
                0.49402981558953735,
                1.0525539636169374,
                -0.02181623866469471,
                1.0347087885360058,
                -0.8272418653630924,
                -0.03333885293721349
            ],
            [
                0.3072168385207777,
                0.140568490559344,
                0.16497968163644847,
                0.7975383545379988,
                -1.04129253653075,
                -0.24177641758084736,
                -0.1624471126770547,
                0.21058819944298748,
                0.5566789404286717,
                -0.30609944288248375,
                0.9907887275302844,
                -2.122117950971317,
                -3.8363106256298294,
                1.0589555333089207,
                -0.1626530069637074,
                0.03668643770050095,
                0.2685374092653485,
                -0.7097653263166805
            ],
            [
                0.28073232129933323,
                1.0378884471265981,
                -0.01767500040288314,
                -0.291044563088154,
                0.48684127890570894,
                0.04382167842972586,
                -0.4965922393010767,
                -1.9020300908711476,
                0.5367462159280623,
                0.3249034940910705,
                1.8092032667481597,
                -0.05924233134609722,
                -0.6905448965553522,
                -4.38034580278115,
                0.8776493171223007,
                0.5804822505232115,
                0.17267225186027985,
                0.5495492399521028
            ],
            [
                -0.6329877737287211,
                -0.2206325431514101,
                -0.3483134318229702,
                -0.48422092884554613,
                0.16780360072977213,
                0.13342929845921303,
                0.45789810318353186,
                0.5961310800556613,
                0.09770960024306433,
                0.206825950127731,
                -1.1550928191533991,
                -0.19945523707834611,
                -0.7107156924846819,
                0.258703155613911,
                0.09425183156867287,
                0.08773886418146201,
                -0.7541502673091786,
                4.833923921444875
            ],
            [
                -0.28774985947029297,
                -1.3313112177681714,
                0.39468785605841805,
                3.3470653171683558,
                0.571998139378503,
                -0.06693671720995628,
                -1.5182792988775395,
                1.3561786056658474,
                1.5793645045464269,
                0.21913097888945965,
                -2.4878028164083377,
                -0.31068985718868164,
                0.9607807096867308,
                -1.8340989581762193,
                -2.3947042471113704,
                0.00304454723099756,
                1.1218769465250034,
                -0.6795823109760765
            ],
            [
                0.27036250908845405,
                1.1461161779293052,
                0.07691784335841334,
                -0.09768662682675004,
                -0.9963128988363313,
                0.4900711781814566,
                -1.7502202182434934,
                -0.156272117361544,
                0.003325181077359024,
                -1.0861622042646917,
                3.2066231319262815,
                -0.6683094278573455,
                1.440758020093031,
                0.6499577255577559,
                -2.5172813387484103,
                1.2393830612089314,
                0.1049701559036769,
                0.4411322346856903
            ],
            [
                -0.3443402391920461,
                1.1282453617753068,
                0.01999948287736576,
                0.6202037215960629,
                -0.7032029735298506,
                0.6949868719389234,
                -1.9479195799311395,
                -1.9924641068865783,
                0.3031446469473695,
                -2.7901213651694876,
                -0.07607463345077643,
                -0.9666629624116428,
                1.4494439807551711,
                0.622938265731582,
                1.531754066196573,
                -1.7280734337352959,
                2.3819568681445715,
                0.49863946451443936
            ],
            [
                0.07022424408725951,
                -0.18161982923693476,
                -3.9347045448639157,
                -1.1532180827948693,
                3.388384096492553,
                0.401932141812228,
                0.9666203153239717,
                1.1356492575400836,
                0.3178963453023362,
                -0.2863906037337199,
                1.8173811781739675,
                -1.4714013858690789,
                0.49099995749946096,
                -0.4247352555561991,
                -0.15067533334008185,
                -0.9702598974623987,
                -0.2367167388601392,
                0.05355497719776268
            ],
            [
                -0.23319584456907627,
                -4.386879935883462,
                -0.04874104191959402,
                -0.14538640475415937,
                -0.5619019012130594,
                0.25224919265747137,
                -0.2555932121837013,
                -0.9509701856096514,
                0.0044372680475798535,
                0.008924208300948071,
                1.7027210827367238,
                -0.29499004980216753,
                0.7605437067977273,
                0.10382848268881385,
                0.9761018527192475,
                -0.06781887874341307,
                -0.41700575735911066,
                0.23131403999986147
            ]
        ],
        "bias": [
            [
                -1.5012495520171816
            ],
            [
                0.41295000348294786
            ],
            [
                -0.17800615373816794
            ],
            [
                -2.0711849521047005
            ],
            [
                -0.7694974135864509
            ],
            [
                -1.3098554923012784
            ],
            [
                -1.5155447564809232
            ],
            [
                -2.3111466768265987
            ],
            [
                1.2108360105161124
            ]
        ],
        "wantBias": true
    },
    "Layer 5": {
        "Type": "neuralNet.Tanh",
        "outputSize": 9,
        "alpha": null
    }
}